encog,BasicNetwork,java,3.3.0,1,63581882226503
[BASIC]
[BASIC:PARAMS]
[BASIC:NETWORK]
beginTraining=0
connectionLimit=0
contextTargetOffset=0,0,0
contextTargetSize=0,0,0
endTraining=2
hasContext=f
inputCount=2
layerCounts=4,76,3
layerFeedCounts=4,75,2
layerContextCount=0,0,0
layerIndex=0,4,80
output=1,0,0,0,0,0,0,0,0,0,0,0,0,0,0,0,0,0,0,0,0,0,0,0,0,0,0,0,0,0,0,0,0,0,0,0,0,0,0,0,0,0,0,0,0,0,0,0,0,0,0,0,1,0,0,0,0,0,0,0,0,0,0,0,0,0,0,0,0,0,0,0,0,0,0,0,0,0,0,1,1,0.00250696378830084,1
outputCount=4
weightIndex=0,304,529
weights=-0.32141881215829,-0.584962681498507,-0.771577207008592,-0.0949844988301025,-0.550883761491692,0.321401561377402,0.755647750269539,0.879085071793363,-0.967608796843208,-0.262817463065419,-0.32256109683689,-0.639029740860762,0.156762512909722,0.220567586372024,0.752944978142032,-0.754399898624376,0.0848852976355678,0.618335664751517,-0.569308301167736,-0.549493513157168,0.0539183178827511,0.12664054174106,0.2698067591932,-0.725280432924506,-0.0229687974104733,-0.752564859204215,-0.257433545554562,0.893717079892287,0.0432127903738073,-0.571438900964444,-0.498823899443676,-0.295573592519603,-0.617429408221814,-0.957798690820895,0.456933643011948,-0.265695249738334,0.0108591797337771,0.146352435496695,0.817921762171758,0.0321823050867702,-0.729827878086412,-0.0845126335991937,0.904108560410003,0.854834799965991,0.978218051647735,-0.0187748135023298,-0.669970285818024,0.461539455105073,0.343451483627868,-0.137505902549822,-0.417734612474284,-0.414202497454718,-0.607094028627549,0.427928339871079,-0.770719041482841,-0.462733052913426,-0.745852766730401,-0.704004848684381,-0.783538340391359,-0.186730359470196,-0.733337230270206,0.527199518790523,0.598557269485871,0.595634591453852,-0.88685341527479,0.0350182109600798,-0.880611004547517,-0.958696355964272,-0.762518065613586,-0.680436689254728,0.761797587151521,-0.652016969651039,0.336102746801709,-0.106371201279065,0.210868360819759,0.223865213898449,0.490209537849904,-0.627760534629417,0.162795398776943,0.496448714017112,-0.790642591483039,0.0150467777545658,-0.682261637959597,0.198865695883629,-0.274379165377598,0.211562331824417,0.0297265330569036,-0.869639206512888,0.953915556458548,-0.968415844676959,-0.994651932495283,0.461048228271133,-0.415226159657763,-0.394242803749,-0.745767001504361,-0.833932805737942,-0.0622939421733533,0.570212067710377,-0.218416393581429,-0.138554824257212,0.893553436462943,0.668396636830098,-0.72835958841793,-0.687649566242841,0.357075220118946,-0.204294270622278,0.827370552031651,-0.662536284628972,0.855204604653721,0.0960033310188009,0.151470842982719,0.547261532795064,0.146898960374794,0.0533753347161627,0.103368658235177,-0.0456564319584485,-0.589144786710104,0.717151613690342,-0.207769502743,-0.921614652623748,0.65290064588671,-0.470163529521888,0.24444922971187,-0.803756656324537,-0.0518597564384355,-0.209372565808234,0.242045919218732,0.388935128079517,0.886726356718649,-0.139542526680272,0.761334816844765,-0.33916193445884,-0.880770094743112,-0.949254401707939,-0.646746572448392,-0.544348493095341,0.313274985410292,-0.371836804516296,-0.430157159837793,0.508536391454546,-0.539311431973771,0.879390813169077,0.879387321417133,-0.015932162757935,0.242320658274028,0.766993372608651,0.446857938911903,-0.860071574104495,0.644065008682318,-0.959344960681635,-0.929220672865819,-0.0667160855116384,0.27172582767747,-0.495996742966852,0.90740288754366,0.583958234402769,0.589272918566562,-0.87201315396381,-0.191188919758349,0.99468625165257,0.268340384138324,0.951063360051177,-0.0854346234939509,-0.116168478132832,0.84475683242432,-0.583867829416764,-0.860825655380481,-0.799099586618905,0.184206776520712,0.365813065745483,0.858679419469239,-0.180510662794282,-0.864641612605665,-0.275343511576655,-0.924931641486182,0.326458505641067,0.684743305172894,0.251832282003396,0.95227349523391,-0.840825446263597,0.369254563645757,-0.770363681780474,0.198816485367211,0.876066928150937,0.0545026536178281,-0.631389842610722,-0.549425660410174,0.563077238712495,0.691934354429298,0.725249876266656,-0.167442827486433,-0.563658618144872,0.469435100181476,-0.0424786382185847,0.587544632557269,0.288582582248156,0.596999632689937,0.24852746029612,0.734625074163641,-0.765055031352456,-0.830827669982876,0.5486644904427,-0.688083036719844,-0.053442420149864,-0.821403538755815,-0.675503646601193,0.0762630900061987,0.0686433275097342,-0.92045000414319,0.380927702014276,-0.387121700850914,0.0939406701038947,-0.618206428305113,-0.478756400524667,-0.70264130276479,0.322996919704336,0.463901519220792,-0.128509571422102,-0.568664553220314,-0.423516768201292,-0.711165332350491,-0.558795726077006,-0.236165072998167,-0.289689265211956,0.358619918372407,-0.208528860049251,-0.408344550329109,0.948722382856365,0.711835223690311,-0.176667282296078,-0.328543586585341,0.839516019261908,0.588639305896255,-0.376136790711803,0.485708873402435,0.341339939449689,0.565885777961638,0.0683410778134603,-0.50635983937189,0.596133312959289,-0.765362945288061,0.858701008438599,0.113897773163823,-0.674130994240687,0.878674699279296,0.809139254288148,0.0295062613014316,0.0330319962719206,0.329037811268717,0.0363820274766273,0.753285630249774,0.406143844497107,0.897696121665911,0.0585763492153955,-0.794739110132912,-0.885921989243595,0.703972811917151,0.935010293939144,-0.517177377861359,0.221284005701309,-0.815460449758977,0.91668441162023,0.480843587682412,-0.301204605541987,0.0559453221937518,-0.147323311224621,0.838947704384317,0.143515453292684,-0.151600213330348,-0.358347544455154,-0.093156675087392,-0.815831672584082,0.999293379384077,-0.887883406153899,-0.588868425067476,0.21516829155561,-0.0874276429939262,0.675364779919419,-0.147459442699414,0.610126229116993,0.0921702018458792,0.0707241518857356,-0.122584745137492,0.309000218687815,0.853808483300619,0.769647465250458,0.351909024752363,-0.677413034845587,0.779792946061957,0.238145890174548,-0.065512213954622,0.185747365602042,-0.83537552826275,-0.179060358129037,-0.143894340977015,-0.574795312394858,0.29217885340053,-0.371716874915116,0.060898271764233,-0.237093506131361,0.66002170135272,0.706870094111862,-0.345859546124781,-0.379456980250586,0.297424817588551,0.525633194787252,-0.45500168486396,-0.0210058510088811,-0.196541389209245,-0.941632032463671,-0.356312933764654,0.788238095336965,-0.615169950226858,0.929652643488913,0.0031018671266787,-0.505556972967833,-0.615331577208299,-0.534948939490567,0.522328855223136,0.314008128123205,-0.755997647392739,-0.994417555248053,-0.0414859104757006,-0.960015095425772,-0.372544765889314,-0.595907685796551,-0.628928275716958,-0.920062221044412,-0.367768278537949,-0.582357571907082,-0.719871806897542,-0.539911789759596,0.178119502920152,-0.38387028314663,0.0430930791554394,-0.106833314026843,0.456561111813258,-0.716155299594358,-0.850773067359575,-0.326681309987104,0.402368195340613,0.890718988425361,0.907483928366075,-0.252053429805079,0.597573874599036,0.460420291324363,-0.342104186695259,0.0853269981719076,-0.168104727206094,0.172681948442262,0.628385307902728,0.303762453587864,0.138777354373161,-0.854285698835333,-0.171971229110786,-0.834015419141552,0.0022170651831197,-0.769160522210243,0.829835068289821,-0.633940152697731,-0.873352667697428,0.732643872439789,0.180191165296442,-0.0552609854827326,0.556033360308185,-0.780194812908622,0.212169236402036,-0.705785316791832,0.180445442091152,0.0383934439021205,0.290405005277938,-0.450745236590938,-0.265450885358909,-0.956956835362208,0.793487593881245,-0.604707932579379,0.481313519756693,0.282767579044408,0.811961034977098,0.676437536432826,-0.567823252142217,0.398506033470606,0.940004240420457,-0.965853746220268,0.596464754473461,0.43047937096975,0.361399492575861,-0.668249689659418,-0.0268745330735078,-0.83081638815006,0.971575380612051,-0.946402411630798,0.663479984694957,-0.594093326261789,0.472058553820364,0.287458509471009,0.0174979184458677,-0.666418897815111,-0.473874098766624,0.391255051532134,0.286704646934502,-0.439141207733197,-0.121581195466904,0.356352736767574,-0.198229818394271,-0.166335536389179,0.770925847163383,-0.591412005263982,0.591594073143381,-0.438613554950715,-0.320706617623148,0.80555308813078,-0.254407989264693,0.794633329661808,-0.758761973703606,-0.205806312065032,0.870622629444694,0.992926043415795,0.59849204844689,-0.688931773790988,0.232363548759026,0.225747274752179,0.994462282185116,0.115281985551692,0.365998195797735,-0.962886751853631,0.998379644773357,0.396474264428452,-0.458256542488741,-0.0703610314388652,0.17813923092806,0.0136189104706099,-0.151003877734669,-0.833999183710806,-0.0585940921111525,-0.835007479123252,-0.107165027261858,-0.151829514457491,-0.869125344738541,-0.479789500531419,-0.436891511531853,0.155987070701896,-0.202840400657346,-0.790937066407406,-0.577674465481136,0.908756878844978,-0.567262269921995,0.442511658129781,0.978367244548392,0.679048556448848,0.759253082691178,0.17259602671708,-0.478309523151939,-0.967859898775245,-0.315473906235957,-0.584880259264851,0.799497656651345,0.281161487056792,-0.65313265452616,-0.111112498944891,0.914383866513224,-0.777752450415176,0.542833468821421,0.202020246930894,-0.704516154918962,0.439630746371634,0.877165587030954,0.762771520529363,-0.934289595649522,-0.567172198238384,0.785401759797736,0.513775740168196,-0.67552214313449,-0.630703174743247,-0.928556116314052,-0.309500112181162,-0.996866581811076,-0.205912110937289,0.186181601646637,-0.507899055819978,-0.0392826770574894,0.276395062297184,0.166348629852596,-0.2702177539918,-0.974692998668804,-0.875101685834079,0.0189743669438496,0.574318252215436,-0.302322453649493,0.0152046438815596,0.161120633516791,0.807083059499774,0.0803753181607527,0.630513143980466,-0.738101765373766,-0.979427874456364,-0.801947133542796,0.843133516483044,0.389426136181031,0.733278231988717,0.503442499078661,0.522962081376832,-0.974706764530771,0.787519474127312,-0.442792026627606,0.637274827325017,-0.381478077173208,-0.83231159305835,0.0156386642134112,-0.585918027641721,0.748203039308206,0.607056964253682,-0.401746336968806,0.147322738933896,-0.36677884194662,0.584305725457709,0.914356765488973,-0.719418521240188,-0.556748746135734,0.625102337471429,0.833094907488215,-0.196147855099002,-0.568751776071211,-0.194314897810207,0.413807053976782,-0.775404504822563,-0.798637606558862,0.226671874834303,0.243437901251077
biasActivation=0,1,1
[BASIC:ACTIVATION]
"ActivationCompetitive",1
"ActivationCompetitive",1
"ActivationLinear"
