encog,BasicNetwork,java,3.3.0,1,63581882787919
[BASIC]
[BASIC:PARAMS]
[BASIC:NETWORK]
beginTraining=0
connectionLimit=0
contextTargetOffset=0,0,0
contextTargetSize=0,0,0
endTraining=2
hasContext=f
inputCount=2
layerCounts=4,76,3
layerFeedCounts=4,75,2
layerContextCount=0,0,0
layerIndex=0,4,80
output=1,0,0,0,0,0,0,0,1,0,0,0,0,0,0,0,0,0,0,0,0,0,0,0,0,0,0,0,0,0,0,0,0,0,0,0,0,0,0,0,0,0,0,0,0,0,0,0,0,0,0,0,0,0,0,0,0,0,0,0,0,0,0,0,0,0,0,0,0,0,0,0,0,0,0,0,0,0,0,1,1,0.00250696378830084,1
outputCount=4
weightIndex=0,304,529
weights=0.677848952139258,0.287208185292739,0.329461454985688,-0.116877057611162,0.565042249769068,-0.981242770301124,-0.518781869182214,-0.846858553680182,-0.230996300210373,0.814532634486079,0.758131849755345,-0.0376522968286781,0.971214869529425,-0.314153324106408,0.87247631056143,0.658795641448219,0.387455816446598,-0.067396755976546,-0.774097761042526,0.613142248443844,0.208010347888528,0.20408125220017,0.330662330998348,-0.422457404168082,-0.700826949814538,0.455358529116801,0.612157854197803,0.180599401174851,0.803057749149628,-0.412598293461895,-0.324280813776694,0.272365145612854,0.802897002122579,-0.574481298369965,0.385769215051777,0.333421949706857,0.267570369229742,-0.519168767087611,0.903515652940463,-0.134274950344084,-0.507703594661559,0.380937123837901,-0.497948425443234,-0.420824787181309,-0.752091239224572,-0.789419546342303,0.749037658451456,0.186174519935371,-0.304013062573332,0.941814478284207,0.0841791303626913,0.873349331802566,-0.183310553797383,-0.103601626629568,-0.970933718945084,-0.596517367036031,-0.309292858302684,-0.854075569278842,0.482209404680588,-0.2729788344428,-0.389347697100695,0.204022602185681,-0.548516747781431,0.478919096718808,0.212344189195975,0.43729468087551,-0.366165996734353,-0.730756809235108,0.892790835295952,0.798977714554199,0.965227498967309,0.748824659512713,-0.698448694506538,0.2549907082438,0.083873968248837,0.0789810952225192,0.513444611057487,0.891312011367644,-0.811972038508916,-0.769209163627793,-0.068801996438602,0.211026861142645,0.0655632815995426,-0.199882217860624,0.588571876234803,0.98398605474967,0.981711172841278,0.787121492472215,-0.0213931160788221,-0.641887279252704,0.221184839556166,-0.559958814678168,-0.63003958389523,-0.457823330466829,0.37173924430832,0.812141021419815,-0.339732330517054,-0.749566355172628,0.0167017757528876,-0.402426458838754,0.308495024576603,0.304456435760559,-0.581562175953902,0.639631912690538,-0.202473389997608,-0.322235180095654,-0.741960394302607,-0.164878001209624,-0.767579314817856,0.592347913542278,0.816328954781458,-0.127354781227998,0.950259683986153,0.610416531638916,0.530858174550513,-0.157073719042437,0.707865387368656,-0.140574470978826,-0.911081157063541,-0.656234291879638,-0.910809799015252,0.860004219634528,-0.904971240944707,-0.269854970751119,0.747464054584235,-0.0105247963953843,0.90933397558292,-0.838793247613651,-0.149035697470575,0.686896371421597,-0.913726177949554,0.719453268795373,0.628386838875042,-0.658188225273442,0.75491079247647,0.926708925827761,-0.674519176582137,-0.700982218499182,-0.954589124666071,0.596259629473264,-0.487801769036625,0.923319921625174,-0.995816524568033,0.970805583697632,-0.55248604857026,-0.744591842428877,-0.625675410181584,-0.613845752572594,-0.304553169289325,-0.87690839334134,0.532483842037899,-0.122403476744767,0.327881791651086,0.983206555880099,-0.337677750207953,0.263405019125331,-0.416486501383896,0.764055233424891,-0.204178593765962,0.11914510157218,0.339459523329841,-0.00392792386232688,0.624023093592416,-0.693059849752068,-0.665326520355374,0.825281409190276,0.264560900871772,0.479421531857305,-0.362035173127259,0.797428004164838,0.296601283681212,-0.786689344218148,-0.698873168791242,-0.459812682781866,0.925256930794305,0.798592673087143,0.513816078996499,-0.484145765189594,-0.482414773784044,0.375759276797269,0.0160506396484228,-0.290150447460075,-0.014767153594212,-0.793635028453728,0.876565920383233,0.535839903600225,-0.832798236842814,-0.920523813281771,-0.750066204231147,-0.246553741192634,0.391627141606215,-0.0856459742663678,0.527164675925035,-0.276240362428259,-0.895586468315655,-0.793153437379623,-0.878621751116524,-0.666992160077384,0.527774368160859,-0.224777015890743,0.330243958132028,-0.765287891643701,-0.0970468920971659,-0.00626267263269709,0.349530018967963,-0.401438583073566,-0.810082468070741,0.210737502418501,0.836639436500059,-0.0674145384434754,-0.822992524032942,-0.377913004087083,-0.49554214561103,-0.256805800505145,-0.557055932735452,-0.768541911509868,-0.0653154208844862,-0.140440913586663,0.492483429454128,0.562646904205658,0.293405445715443,-0.00565880961798393,0.277777022081689,0.174689659237682,0.28577236140089,-0.588248500689955,0.298748028626785,0.99495418693112,0.673120223944545,0.0647607389136942,-0.795063031320008,-0.595258235200637,-0.839101347551603,0.171852698839767,0.979345857645039,-0.990425125458414,-0.595485119359314,-0.40218119357858,0.766891610453268,0.456366734513667,0.823156524745398,-0.627281282751952,-0.185653326744415,-0.204784833786442,0.528729991665308,-0.361126285520661,-0.367139395972741,0.856730133395089,0.180399463194642,-0.158865019339677,-0.436621554537139,-0.342441699400787,-0.0817403667009633,0.82577456703751,0.354050185301718,-0.805302065334802,0.689758646404693,-0.0197944815239002,-0.0696086165898133,-0.139276259807534,0.759693282721735,0.883553414983602,-0.984600132305699,-0.0452058813727327,0.67273740137935,0.713021243309575,0.0768244743164219,0.40193748057905,-0.212774256538932,0.695399274222457,0.292498593430536,-0.840997073212242,-0.631326232733183,0.987317479279517,-0.782851611812387,-0.0514703422916887,0.649152632840925,-0.671803554453106,-0.820373090477057,0.472253661286901,-0.0392791549217979,0.785488370982999,0.65440414796565,0.9982579418383,-0.552774944435009,0.158771011326069,0.335758438530897,-0.134535721012519,0.51909594217056,0.242180536969896,0.710280737779643,-0.063141474650952,-0.701040620715482,-0.291437866442053,0.837050203479055,0.0672889338291098,0.89881621236779,-0.00370479393176648,0.488327352182303,-0.693171917733416,0.644357014701227,-0.519801490970864,0.597512110585863,0.405291221152343,0.871223094252126,0.241747557264097,0.438200141530855,-0.481979402930785,-0.381934830578838,0.924998574087893,-0.400542700042225,-0.15518046211555,-0.267022926772525,0.675988440193577,0.253768986453293,-0.927689771374214,0.858841384184821,0.956950142218828,0.923735407817591,0.138596382504029,0.48604500772696,0.846018746146182,-0.297824955131376,-0.595021834913843,-0.332351343571382,0.40507948247771,0.628951689862145,0.189506308822397,0.699108728836099,0.761139517021853,0.774524903586064,0.77971856910462,0.492808536400896,0.265706424956316,-0.233392124048903,-0.460520196610152,-0.642795434711522,-0.473082483027407,0.164632574910492,0.183736821915684,-0.21325058174315,0.285895018239454,0.998845694944742,-0.87316436485732,-0.68897224177192,0.0896773138556901,-0.691645380262457,-0.823458148010348,-0.659261856219556,-0.496082563015045,-0.56980607734552,0.360789723497882,-0.144253979240964,0.362230152487208,0.0723325268538788,-0.156602257409697,-0.870725009883706,0.540834230777687,-0.007732498167492,-0.673255405174526,0.32859706342517,-0.197925962174948,-0.29134307422072,0.791058907460821,0.418768516878407,0.292214439542506,-0.39979377560065,-0.24522124005711,0.68247976262426,0.706013495689175,-0.679407343444675,-0.614723600063029,-0.94051604223431,-0.50003235190214,-0.216945854551097,-0.559175768786208,-0.141097621072918,-0.544171239633914,0.402149532040243,0.47045311802729,0.724905548132583,0.771781365014462,-0.652706948211748,0.902983116913791,-0.922953830224873,0.368777900392915,-0.526487508547286,-0.526036601101986,0.798375966069379,0.0931729573957143,-0.227226811501727,-0.132648407220183,-0.625220440276536,-0.550677461315712,0.552171469890179,0.318512727542881,-0.203016992995689,-0.0129740538685481,0.732045437796736,0.585478886447691,-0.686042048245226,-0.263117409015674,-0.0172644648297391,0.332430970237003,-0.220512537584837,-0.676526433363248,0.488775320041423,-0.226501882225182,0.68164825168236,-0.751045040100239,0.89290643796689,-0.114708579970056,0.0585349031624502,-0.730059606990048,0.206847808187358,-0.898206829514436,0.440387820563977,0.962461228940657,-0.279007542709034,-0.455978526796357,-0.479127218923802,-0.453065633826175,-0.044904661348325,0.862524841936737,0.13547570402175,-0.64959252785541,-0.517666405292958,0.051715946511169,0.0147824993688608,-0.635374384843243,-0.342980605363142,-0.41833601339848,-0.642120279368478,-0.553868476362883,-0.653362617950381,0.63052885572043,0.384662826156816,0.224923386743181,-0.228086676053106,-0.543548434895334,0.994055434108264,-0.0601443021542925,0.401775322772619,-0.667577685252991,-0.184651571639179,-0.105701245327723,-0.678789439086396,-0.483758412038198,-0.188855607955497,-0.523188277772077,0.310618933919163,0.560742617597567,-0.283599859407018,-0.858661258640655,-0.115327461142381,0.137502259770828,-0.85991700721467,-0.914962751429109,0.731101316827271,0.120135111018001,0.567304968654713,-0.374034878039901,-0.744916548241566,0.0208397134042326,0.0688442165002199,0.388937559108187,-0.0241100245043435,-0.728315251352612,0.824752121138829,0.729727658180346,0.534606154624693,0.181601416961327,0.895145722226301,-0.663381951963921,-0.67473808051361,0.546933460836321,-0.31312177119503,0.331923600295787,0.702595504126907,-0.310836155756227,0.274392370547621,-0.251910656046631,-0.860765290616879,-0.836704896035947,-0.76245479464876,0.581489994413729,0.207983809285247,-0.226206519416659,-0.101801338743495,0.068945018431499,-0.536787260671705,0.128338464265267,0.257956508373116,-0.338835184057483,-0.310508278748337,-0.83075726554741,0.659718135609234,0.127992519514487,0.0530022653268549,-0.399978517049615,0.109602550699386,-0.605749570840234,0.212741500209678,0.273746448989534,0.83887629672213,0.258751768324241,-0.263024572892649,-0.578338834025816,0.726433502313565,0.97484780986563,0.954285679105269,0.0544059874015281,0.0391984501910241,0.957382573868658,-0.329794389410262,0.201332232945465,-0.52098616870806,-0.632230640110554,-0.623343086121792,-0.11449220677902,0.942379897906406,-0.857880701415562,0.409153975099747,-0.843598611513648,-0.833221876493158,-0.390457130007773,0.299377499587277,-0.564312795588219,-0.533481350398829
biasActivation=0,1,1
[BASIC:ACTIVATION]
"ActivationCompetitive",1
"ActivationCompetitive",1
"ActivationLinear"
