encog,BasicNetwork,java,3.3.0,1,63584400286805
[BASIC]
[BASIC:PARAMS]
[BASIC:NETWORK]
beginTraining=0
connectionLimit=0
contextTargetOffset=0,0,0
contextTargetSize=0,0,0
endTraining=2
hasContext=f
inputCount=2
layerCounts=4,76,3
layerFeedCounts=4,75,2
layerContextCount=0,0,0
layerIndex=0,4,80
output=0,1,0,0,0,0,0,0,0,0,0,0,0,0,0,0,0,0,0,0,0,0,0,0,0,0,0,0,0,0,0,0,0,0,0,0,0,0,0,0,0,0,0,0,0,0,0,0,0,0,0,0,0,0,0,0,0,0,0,0,0,0,0,0,0,0,0,0,0,0,0,0,0,0,0,0,0,0,1,1,1,0.454152630933503,1
outputCount=4
weightIndex=0,304,529
weights=-0.418462892339429,0.237942907595661,-0.178910407840734,-0.521294728424728,-0.685177858576181,0.753129466450333,0.978697582903251,0.183331812214073,-0.98943371777624,-0.351844818341117,0.934497193516409,-0.854897448196344,0.154938576317707,0.489019834466413,0.705449802856307,-0.233240904781898,0.768406485586821,0.130314805079659,0.997893503814496,-0.526354206804427,-0.154058554681079,0.776006511828985,0.628768493726417,-0.927394695627965,0.0585254760695979,0.935860273512151,-0.671836354305483,-0.753072230640628,-0.647040087617772,-0.934469773100227,-0.993903250740137,0.901353256260038,-0.382835134967004,-0.454988161132856,-0.168321791418893,0.571151398091405,0.624707313471513,-0.559885816071686,0.270803296800708,0.812964779596194,0.475493365999734,-0.0668772455453559,-0.0987475144414907,0.391381829601116,0.745044122070917,-0.336530924901523,-0.404625985709507,-0.926507963005329,-0.60037333319202,0.157893802469973,0.0975605653119018,0.10060927502991,0.224086960247886,-0.707156233760397,-0.76590995012296,0.290204085410448,-0.896196708789983,0.694598658909884,-0.791839870691519,-0.352589307071979,-0.863924433376647,-0.56852406266403,-0.66766691433202,-0.138129297330186,0.761410450298305,-0.575235085463608,0.608242584931731,0.598338451013008,0.181503545279293,-0.817609797114795,-0.723457941067245,-0.437667412274501,0.850601379888208,0.224958208102195,-0.7198708366289,-0.0301418122783501,0.395889531187638,-0.374998243085911,-0.275579489631038,0.988018909111145,-0.444211989777973,-0.785382608114946,-0.663375965026654,0.990668275444293,0.375900176370342,0.207367559356223,0.654127233116382,0.981978354499137,-0.408545707141278,0.743362783927286,0.703830641849131,-0.297624276984998,0.713295134036663,0.0235604061474641,-0.184323130628729,0.697312153831427,-0.118754465213483,-0.24559628521044,-0.684819333148543,0.153127635538679,0.796459230692107,0.749652999333482,-0.793104959720838,-0.594697141017842,-0.815992011444931,-0.0249845070033945,0.914099687886621,-0.157168805255625,0.391137422860161,-0.355332157785956,-0.540196149034489,0.646501555035236,-0.00288242413966078,-0.686991622799234,0.0237474038978118,0.399226185779041,0.000957732584379034,0.0996793935282867,-0.964590578760619,-0.809006986759213,0.228797698453782,0.517497779997133,-0.158504756566347,-0.131028895988892,-0.423945033102466,-0.0640264225224547,0.544338360175846,-0.915509451561137,-0.546805588746357,-0.213647867894555,0.440565582719859,-0.587758873622802,0.331099429651368,-0.549634884919546,0.401426931510568,-0.133765262318769,-0.302293328939139,0.264996350029653,0.299275936348353,0.751944766338216,-0.634844475044821,-0.412761162619236,0.922709468863987,-0.195741031182787,0.834608549239792,0.44997005485569,-0.2429889921719,-0.148827777562376,0.91227191506902,0.673186620123673,0.921017733013913,-0.579837017704595,-0.0603378705270585,0.786310980430616,-0.468603971277855,0.866916613515417,0.239223431195837,-0.830515365444677,-0.366278987487461,0.537963842792779,-0.691186646549918,-0.462787339178207,-0.0846933774482477,-0.33570399384235,-0.932926908537683,-0.0347930677514452,-0.826526067638863,0.328232010710865,0.762499611413327,0.928899693758638,0.667076956572369,0.536180731724287,-0.37342641794194,-0.0143461102491309,0.665036455957212,0.525261435108791,0.24803069156876,0.734692143791407,0.150638586464578,0.176228633429897,0.306838622334216,-0.495345208549143,0.484643543577334,0.668952723695195,-0.135020445236117,-0.462100941321548,0.591990780345998,-0.371562223266622,0.662962807429913,-0.0700165093203535,0.88675295806493,-0.190117745712508,0.677736338764419,-0.622063482658552,0.900772167527377,0.545071842027727,-0.0916427191966749,0.103923483280191,0.942199339660917,-0.511786795783283,0.238432595544523,-0.902596779717264,0.338215352985117,0.849497840652176,-0.550331998105844,-0.13599793182414,0.134725574084225,-0.186788801505421,-0.214595946726637,0.247687222766654,-0.79399265025538,-0.588845802777651,0.544463837347028,-0.909193694900243,0.216719213965949,-0.517063315586123,0.80536094454071,-0.588489409497749,0.4528142514963,-0.38963445001031,0.30161219199889,-0.977584474364013,0.313565411335704,-0.373307231242565,-0.774667332929083,-0.434759317325163,-0.210245243363188,-0.163528737885218,-0.754107449387978,-0.53378618749015,-0.671382167037551,0.148836188744425,0.607918488107944,-0.481676406899275,0.215494513228723,-0.65098327548973,0.463941490957976,-0.673314546398726,0.127104676669793,0.851971397008845,0.280024024279014,-0.531765989747487,-0.642904128350784,-0.745326877499824,-0.785052417714673,-0.367834373924958,0.463492609343301,0.934606780686227,0.974751314873342,0.810206414463188,-0.165885054747695,0.45529404146306,-0.25359505628446,-0.60449652327795,-0.736012149881081,-0.63939176337031,0.524231611142649,0.32234481836845,-0.274498103384816,0.589999016535999,-0.38009699413765,0.716731039666163,0.988529895650498,0.989499817785666,0.272669272321643,-0.736270805273223,0.721283404380804,0.729411257369044,0.489517384240867,-0.776899218005102,-0.488758863783297,-0.994293415227103,-0.492202168710778,0.467110227778775,-0.874102852725091,-0.929189123862104,0.122081763266488,0.297678079097673,-0.543395402544548,0.188960079363364,0.734252296063349,-0.874139890005461,-0.62464408030193,0.956620399012075,0.843700839018424,0.963716137443573,-0.160036572236387,-0.644064467894311,-0.920163112589255,-0.320027034691029,-0.394534031291536,0.819118730970766,0.948098798516867,0.580288265846436,-0.386244779560357,-0.666169227621441,-0.0567001440188195,0.735853975349702,0.519904204749008,0.0829567431319642,0.773943235180773,-0.845698575633646,-0.859874631527114,0.949124357982351,0.741941003583315,0.320528281557475,-0.228415777432819,0.78155301335729,-0.411890464739356,-0.38088677297592,-0.215136086248299,0.486146589614084,0.0796192248073131,-0.540582066197395,0.84247052200164,-0.138712590559703,-0.364737082463761,0.234261187847342,0.564157914604404,-0.0474598432102131,-0.991116022625042,-0.819415074702178,-0.309198441414476,0.360964447909072,0.805118660689086,0.383461033475649,-0.887028609761401,-0.467877933422256,0.806668070578517,-0.262908467003164,-0.5664594290078,-0.325955655569339,-0.868049766080947,-0.0223468819125823,-0.686781034815875,0.19417326906944,-0.288591334524598,-0.838634001287361,0.449632924203796,0.0416308364050269,0.928882286992203,0.699696848492061,-0.0254713070753314,0.14792739593322,-0.624883033834466,-0.94535496864648,-0.272512149858643,-0.00665177422093954,-0.416357571669348,-0.814904287380447,0.446854887710559,-0.420037945561104,0.649099002986999,-0.0758511460992368,0.300679815784932,0.160711987927344,0.579333122073906,-0.600407105146067,0.228953038833938,-0.0470963804939222,-0.321696854714386,-0.685449083079174,-0.235442480201316,0.894969904313429,-0.0618674541553124,0.612258173181693,-0.662716756629512,-0.335519088725914,-0.915247163591677,0.167448255694587,-0.852258438012814,-0.897450796946347,-0.965369611104586,0.266739641865535,0.583966797246701,-0.154731719410922,-0.387581985332607,0.915246091618769,-0.377472512674599,-0.643644844977374,0.274301714509407,-0.801169749940664,-0.985865185493425,-0.161410119840771,-0.229753817758605,0.28720675882381,-0.978159569210607,-0.0519936407507771,0.250970872009959,-0.0696099905954772,0.317966621426498,-0.0881505678567394,-0.331693417254815,0.194913644597667,0.182691368753377,0.406070128899134,-0.101738062570934,0.0147761467051919,-0.024739729301078,-0.537604376655926,-0.839215617511224,-0.116559164897113,-0.540360039223639,-0.0225580250966855,0.339690210921427,-0.183537179654379,-0.769847993318416,-0.419781856461478,0.956489068316157,-0.965238407968578,0.967589337256408,-0.408885927130307,-0.352381555720731,0.0484718369202399,-0.573842298607929,0.845242445915024,0.474217790418154,-0.709592368568032,-0.437641271296763,0.280636131176156,-0.309674884030827,-0.389923737186708,0.234919429145678,-0.813834532331961,-0.574680738239338,0.132832865741898,-0.820849775513014,0.45249965105518,0.197580334704812,-0.372751654652005,0.139157635813653,0.94210095422938,0.118770432140147,0.931891479333978,-0.890820871648338,0.89909392687923,-0.4255873263623,0.0494698324712368,0.641171563323919,0.581300253641006,-0.219783577366014,0.400357363978884,-0.15501343193601,0.649403324301511,0.865603121459142,0.412925304131212,0.999441859807982,0.22297536578528,-0.809110816770227,-0.563484116824975,0.948742886699256,0.451118161293779,0.959855694514369,-0.167424672777416,0.788090932560554,-0.504175783375911,0.0107571499138834,-0.487473992486166,0.932920917769257,-0.5872993573513,0.725106926940235,-0.955545528548337,-0.445482262951138,-0.4437832430049,-0.394906866244854,0.664199641963305,-0.212986213712323,-0.253498992126755,-0.162937742732054,-0.866397326478132,-0.812629193578058,-0.524638011000654,-0.950927908334722,-0.93110790126191,-0.00599713878206276,-0.566919349204001,0.0400179785117514,-0.459282451683224,0.711818580946562,0.709265466729589,-0.378252459719334,0.438184065859096,0.759290331091455,-0.120404473481476,-0.307300691140034,-0.560298403645943,0.414110828762782,-0.343945416598581,-0.887043396030212,-0.64222568333448,-0.176644366157822,-0.0355646072700062,-0.787010758782337,-0.634596443962064,0.776704835703828,0.598690425890133,-0.609729423403467,0.432229167417438,-0.805791029831273,0.301596721337431,0.708367123275772,0.632396865789765,-0.916417177889914,-0.348251127871066,-0.914525936784988,-0.576068981794887,0.29426423122597,-0.287592484798518,0.0826536289431856,-0.771087308421188,0.552411185013359,0.93963323679625,0.104050464276053,0.662501151167182,-0.332405101634229,-0.604137046322391,-0.861229716872964,0.952616811755064,-0.619287019499235,0.709751198087344,-0.113085396091985,-0.70909541845417,-0.188143977074577,-0.424826416430483,-0.55125375368797,0.0912898195200957,0.875623105142485,-0.211636291733905,0.9280337436662
biasActivation=0,1,1
[BASIC:ACTIVATION]
"ActivationCompetitive",1
"ActivationCompetitive",1
"ActivationLinear"
